
# 5 bit
w1 = [[-1.67700276, -1.50395313, -0.33128937, -0.03715332,  0.18970572,  0.7471194,
   5.75610294 , 1.13387011 , 0.47813391,  0.18392152],
 [-0.8196817 ,  6.98297772 ,-0.14938042 , 0.04995831 , 0.06326144, -1.09706569,
  -0.69476629, -1.42929098, -0.58618462, -0.74088145],
 [ 6.08455233, -0.64245289 ,-0.95719143, -0.86187327, -0.67269236,  2.58371203,
  -4.89890061 ,-2.88756482,  0.15379901,  0.15602434],
 [-4.0578591 , -3.26804391,  0.16292189, -0.76441159, -1.01226629,  4.12728996,
   1.66060172,  2.24956221, -0.27299017, -0.26859586]]


w2 = [[8.50835954, 9.82712696, 8.86657898, 6.15074712]]



# 4 bit
w1 = [[ 3.83361428, -1.62555886 ,-1.99885878, -1.94879967 , 5.72054498, -4.7422564,
   0.90180631,  0.56735433],
 [-1.48850856 ,5.25562151, -0.48164306, -0.21307206 , 1.69662574 ,-1.95349486,
   1.87004015, -0.50391611],
 [-3.6589659 ,  4.98213614 , 0.9848591  , 0.27358018,  1.97487767 ,-2.90738547,
   1.35319565 , 1.21456527],
 [ 0.08213797, -1.2037609  , 1.00553175 ,-0.17156286 ,-2.77915214,  4.20608988,
  -3.00909253, -0.698583  ]]


w2 = [[ 7.82905148,  4.70950097,  5.62732934, 11.95963656]]



#3 bit
w1 = [[-2.0774488,  -2.34314596, -0.65882794 , 1.51817627,  6.01528269 , 2.06026903],
 [-1.65521242 , 7.0784861,  1.83011866 ,-0.72527418, -2.35996882, -3.05201145],
 [ 4.25878113 ,-0.31050123 ,-0.72225168,  1.61858454, -3.56113963 ,-1.25785993],
 [-3.52898714 ,-3.92591215, -0.76297586 , 3.32584655,  1.18931839  ,1.23305938]]


w2 = [[ 8.33773505, 10.28209111,  8.30285199 , 5.97369198]]

